{"type":"NeuralNetwork","sizes":[20,3,3],"layers":[{"weights":[],"biases":[]},{"weights":[[0.8791208863258362,-0.16357333958148956,-0.842769205570221,0.7268428206443787,1.2323346138000488,1.120352864265442,1.0381850004196167,0.9679064750671387,-0.03959003463387489,-1.0139585733413696,-0.9257928729057312,-1.1373687982559204,-0.8379616141319275,-0.39474132657051086,-0.26908257603645325,-0.46580904722213745,-0.08105320483446121,-0.18703924119472504,-0.15857982635498047,-0.3400786519050598],[-0.3654899299144745,0.1826363503932953,0.15233482420444489,-0.21707966923713684,-0.30014997720718384,-0.5017327666282654,-0.5132228136062622,-0.5239371061325073,0.010443862527608871,0.26766127347946167,0.3882482647895813,0.43068623542785645,0.47476163506507874,0.30868709087371826,0.3008168041706085,0.15723204612731934,0.25458452105522156,0.16011184453964233,0.15170890092849731,0.22436751425266266],[-1.543418288230896,0.005372906103730202,1.2703666687011719,-1.526698112487793,-1.8095301389694214,-1.7713725566864014,-1.900511622428894,-1.635511040687561,0.05063365772366524,1.9076218605041504,1.7844014167785645,1.6842972040176392,1.6831823587417603,0.20326218008995056,0.3285670876502991,0.4350278079509735,0.5378621816635132,0.4507701098918915,0.5755869150161743,0.4641345739364624]],"biases":[0.11808785051107407,-0.04954219609498978,-0.02363601140677929]},{"weights":[[2.7306947708129883,-0.8054065704345703,-4.474770545959473],[-2.7272114753723145,0.8086042404174805,4.519951343536377],[-1.3076733350753784,-1.0198960304260254,-0.9162495732307434]],"biases":[1.0797574520111084,-1.1053798198699951,-2.0985050201416016]}],"inputLookup":null,"inputLookupLength":0,"outputLookup":{"1":0,"2":1,"3":2},"outputLookupLength":3,"options":{"inputSize":0,"outputSize":0,"binaryThresh":0.5,"hiddenLayers":[3],"activation":"sigmoid"},"trainOpts":{"activation":"sigmoid","iterations":20000,"errorThresh":0.005,"log":false,"logPeriod":10,"leakyReluAlpha":0.01,"learningRate":0.3,"momentum":0.1,"callbackPeriod":10,"timeout":"Infinity","beta1":0.9,"beta2":0.999,"epsilon":1e-8}}