{"type":"NeuralNetwork","sizes":[390,3,41],"layers":[{"weights":[],"biases":[]},{"weights":[[0.1626872718334198,0.026522981002926826,0.10132864862680435,0.025410134345293045,0.19187571108341217,-0.1422053426504135,0.14042600989341736,-0.025814147666096687,-0.10314634442329407,0.20103001594543457,-0.16804368793964386,-0.05686384439468384,-0.13121509552001953,-0.1538659632205963,0.12802238762378693,-0.1256292164325714,0.18994711339473724,-0.012666402384638786,-0.0817677229642868,0.12408969551324844,0.07655295729637146,0.11722858995199203,-0.14156058430671692,0.07253231108188629,0.04310939088463783,0.13457930088043213,0.14167501032352448,-0.012843368574976921,-0.02537921816110611,0.05392260104417801,0.12693171203136444,-0.02570893056690693,0.06286263465881348,0.207357719540596,-0.13352537155151367,-0.049367956817150116,-0.05071786046028137,0.02319922298192978,0.10899540036916733,-0.10138927400112152,0.14728260040283203,-0.16046182811260223,-0.07123754918575287,-0.15346136689186096,-0.1354914754629135,0.01923494040966034,0.03161051869392395,-0.12708905339241028,-0.06590477377176285,-0.10393346846103668,-0.15035347640514374,0.15564247965812683,0.20589116215705872,-0.11160378903150558,0.14027836918830872,-0.1199469268321991,0.20098017156124115,-0.12649577856063843,-0.026388829573988914,0.11052731424570084,0.05053160712122917,-0.1001201644539833,0.06446980684995651,-0.10629308968782425,0.20772284269332886,0.06720773130655289,-0.10189355909824371,-0.028539983555674553,-0.03811362758278847,0.04651350528001785,0.13290613889694214,0.15046440064907074,0.03251705691218376,-0.09534072130918503,-0.021193966269493103,-0.07632866501808167,0.05115561559796333,-0.17720717191696167,-0.12349803745746613,0.1299407035112381,-0.1721123903989792,0.20483730733394623,-0.12012816965579987,-0.1453816294670105,-0.07673820108175278,0.05239305645227432,-0.07274191826581955,-0.007239933591336012,0.0873764231801033,-0.1657821089029312,0.05059149116277695,0.189446821808815,0.16329574584960938,0.1301405131816864,-0.08201059699058533,0.10182566940784454,0.14907187223434448,0.1018751934170723,0.09892728924751282,0.008610684424638748,0.17546071112155914,-0.08660037815570831,-0.007463761139661074,0.187041237950325,0.19021344184875488,-0.057210519909858704,0.09515375643968582,0.11251812428236008,-0.02022147923707962,0.19498027861118317,-0.15689511597156525,0.10669723153114319,-0.14390181005001068,0.05252029746770859,-0.04717516154050827,-0.040141016244888306,-0.0013687838800251484,-0.04435044527053833,0.030553020536899567,0.1795741468667984,-0.13245926797389984,-0.07148703187704086,0.19276714324951172,0.017209535464644432,-0.1765579730272293,-0.177027627825737,-0.01206197775900364,0.213389590382576,0.17028774321079254,-0.10708899796009064,-0.01930469647049904,0.06668832898139954,0.06743456423282623,0.14399506151676178,-0.15502801537513733,0.02688373252749443,-0.1334269493818283,-0.15533675253391266,-0.04541994631290436,-0.014654835686087608,0.08006016910076141,0.012872152030467987,-0.17201216518878937,0.14965035021305084,0.16759012639522552,0.056253667920827866,0.08477027714252472,-0.12787431478500366,0.06358823925256729,-0.1409471482038498,-0.07836472988128662,-0.09774865210056305,-0.05427377671003342,-0.0897550955414772,0.0035895081236958504,-0.18182112276554108,-0.10934772342443466,0.09980127215385437,0.09078402817249298,-0.1281469166278839,0.13898424804210663,0.19177457690238953,0.05574841424822807,-0.09845323115587234,0.09302382171154022,-0.030277244746685028,0.15306994318962097,0.18060368299484253,0.14841796457767487,0.12194357067346573,-0.1717221438884735,0.09920240193605423,0.08016957342624664,-0.0888923704624176,-0.11173103004693985,0.03580517694354057,0.0729982778429985,-0.036978017538785934,-0.16720440983772278,0.025816690176725388,0.15159744024276733,0.17616234719753265,-0.07050155103206635,0.051136184483766556,0.15428106486797333,0.07956656068563461,0.04895668849349022,-0.05776473879814148,-0.04637208580970764,0.07494577765464783,-0.00798697117716074,0.0322868674993515,0.1455456167459488,-0.04692862927913666,-0.10314290225505829,0.09190390259027481,-0.08847296983003616,0.12119832634925842,0.14424541592597961,-0.0238984152674675,0.033905014395713806,0.1555040180683136,-0.028914952650666237,-0.16040991246700287,-0.02278182841837406,0.057222187519073486,0.05412901192903519,-0.17704856395721436,-0.08503492176532745,-0.1361664980649948,0.10671330988407135,0.09405721724033356,0.008258968591690063,-0.026470990851521492,-0.17436978220939636,0.07157648354768753,0.1650248020887375,0.15924739837646484,0.032693006098270416,-0.04159129410982132,-0.0346231535077095,0.029546625912189484,0.14545567333698273,0.15035811066627502,-0.08860878646373749,-0.09734451025724411,-0.13929606974124908,-0.00483538256958127,-0.042653538286685944,0.0768023207783699,0.02809923142194748,0.02283206582069397,0.11903627216815948,0.11011675745248795,-0.16860905289649963,0.11522073298692703,0.19209079444408417,-0.154910147190094,-0.005259562283754349,0.059797439724206924,-0.11569344252347946,0.06135148927569389,0.08519234508275986,-0.08331070840358734,-0.09520552307367325,-0.06296519935131073,0.13430306315422058,0.09843754768371582,-0.0027938352432101965,-0.10710402578115463,0.027079688385128975,0.12640728056430817,-0.09027913957834244,0.12869714200496674,-0.030298246070742607,0.09922651201486588,0.055509500205516815,-0.07868212461471558,0.1715565025806427,0.2086287885904312,0.013989044353365898,0.01748020015656948,0.17845295369625092,0.10725906491279602,0.20377913117408752,0.19206395745277405,-0.011313864961266518,0.0855335220694542,-0.0856383889913559,-0.09915059059858322,-0.11974472552537918,0.1495634764432907,0.13598468899726868,-0.02417302504181862,0.025415973737835884,0.04533470794558525,0.08004281669855118,-0.10965404659509659,-0.026674877852201462,-0.06132502108812332,-0.05147172138094902,0.08709437400102615,-0.13108189404010773,-0.15519016981124878,0.2143980711698532,-0.01165747083723545,0.11787310242652893,-0.11177710443735123,0.11551270633935928,-0.06386395543813705,-0.002551778918132186,-0.10824490338563919,0.0560305155813694,0.10441096872091293,0.19243866205215454,0.11152495443820953,-0.17074552178382874,-0.06849276274442673,0.16908346116542816,-0.15099658071994781,0.14637529850006104,0.07632333040237427,0.08682363480329514,0.16374580562114716,0.19452472031116486,0.07122299075126648,0.06163981184363365,-0.13804885745048523,0.12646354734897614,-0.007440060842782259,-0.1434638351202011,0.16004152595996857,0.16393989324569702,0.1771230399608612,-0.04934054613113403,0.015468896366655827,0.16621458530426025,0.0965036004781723,0.021573049947619438,-0.111750029027462,0.14863109588623047,0.0217834934592247,-0.035978443920612335,0.20186394453048706,0.00808732584118843,-0.10684597492218018,-0.0853404849767685,0.06923273205757141,0.08086542785167694,-0.05490672215819359,-0.002932812785729766,0.10442520678043365,0.05090687796473503,0.12567798793315887,0.17901840806007385,0.1561518907546997,0.005126302596181631,0.018219973891973495,-0.04969091713428497,-0.008755076676607132,0.1261540651321411,0.1367262303829193,0.16688033938407898,0.07989738136529922,0.153212308883667,0.057405147701501846,-0.1529574990272522,-0.17991109192371368,0.0645594373345375,-0.024655701592564583,-0.09318892657756805,0.01758485846221447,0.05955328047275543,0.07815864682197571,0.07737366855144501,-0.1254684031009674,-0.14659656584262848,0.13395416736602783,0.2071831077337265,0.19027921557426453,0.20575177669525146,0.17868845164775848,-0.058159664273262024,0.20843714475631714,0.008086705580353737,0.010289842262864113,0.19643518328666687,-0.06697327643632889,0.16795557737350464,-0.06570666283369064,0.19881261885166168,-0.09275263547897339,-0.03425588831305504,-0.1426893174648285,-0.08436654508113861,0.19534847140312195,-0.149021178483963,0.19014333188533783,0.21561773121356964,0.05342544615268707,0.14573213458061218,-0.12954223155975342,-0.09945037215948105,-0.13988110423088074,0.0007299808785319328,-0.12544265389442444,0.10226543992757797,-0.0023739305324852467,-0.03961992636322975,-0.14004108309745789],[-0.18139837682247162,-0.07062599807977676,-0.14241045713424683,-0.18588894605636597,-0.01430756226181984,0.11907000094652176,0.01645893231034279,0.13600480556488037,0.0006219727220013738,-0.00138638517819345,0.023177389055490494,-0.07656460255384445,-0.18779708445072174,0.05595456063747406,0.044827528297901154,-0.12851828336715698,0.10537348687648773,0.04654552415013313,0.1085016131401062,0.07176531851291656,0.11363987624645233,-0.0735013335943222,0.1147557944059372,-0.10275021195411682,-0.13921409845352173,0.029943134635686874,0.10241886228322983,0.006853139027953148,-0.034449391067028046,0.09404467791318893,-0.09736508876085281,0.09905344992876053,-0.05410999804735184,-0.011192915961146355,0.18688715994358063,-0.03475460037589073,0.162202849984169,-0.15156766772270203,-0.04502134397625923,-0.10282670706510544,-0.17277629673480988,-0.0019468491664156318,-0.11860715597867966,-0.11778122931718826,0.06612260639667511,-0.1826380491256714,0.0061067845672369,0.007981888949871063,0.05042733624577522,0.19381046295166016,0.10321120917797089,0.18878978490829468,-0.12319237738847733,0.15485529601573944,-0.14539757370948792,0.0003040957963094115,-0.14394815266132355,-0.1412033885717392,-0.03231370449066162,0.02088196575641632,0.17938923835754395,0.15746362507343292,0.19259828329086304,0.08914083242416382,0.05826936662197113,0.11126647144556046,0.1286545842885971,0.04138960316777229,0.1285216361284256,0.09172774106264114,0.012974154204130173,0.11423259228467941,-0.09323260188102722,0.06093433126807213,0.17224742472171783,-0.07318577170372009,0.1764843612909317,-0.08970198780298233,0.1066775918006897,-0.09332094341516495,0.07979924231767654,-0.064192034304142,0.19426293671131134,0.18911148607730865,-0.10705903172492981,-0.188828244805336,0.028747905045747757,0.039148397743701935,0.03260359168052673,0.08434481173753738,-0.06386178731918335,0.202406644821167,-0.03030751645565033,-0.17505037784576416,-0.06084829941391945,0.03381096199154854,-0.13984909653663635,-0.18565762042999268,0.048028282821178436,0.03329446539282799,-0.07745625823736191,-0.1254831850528717,0.07701215147972107,0.1111057922244072,0.15063893795013428,0.17879718542099,0.16725915670394897,0.160101979970932,0.08401483297348022,0.17134931683540344,-0.17130674421787262,-0.18866324424743652,-0.06833208352327347,0.15198615193367004,0.0758984312415123,-0.004390566609799862,0.04099181294441223,0.031008414924144745,0.07277678698301315,-0.042632270604372025,0.1612951159477234,0.1547936648130417,0.02275005728006363,-0.15569572150707245,0.10070301592350006,-0.17582938075065613,-0.10435950011014938,0.17621086537837982,0.08455312997102737,-0.004901641048491001,-0.09729103744029999,-0.17549441754817963,0.11215797066688538,-0.10948533564805984,-0.054554082453250885,0.09468836337327957,0.0973047986626625,0.0804801806807518,-0.17349185049533844,-0.11905070394277573,-0.15529713034629822,0.04204893112182617,0.19850985705852509,0.11767491698265076,0.06901516020298004,0.14087647199630737,-0.030300352722406387,-0.13997089862823486,0.09392214566469193,-0.13403011858463287,0.20484010875225067,-0.006813233718276024,-0.09399581700563431,0.14334805309772491,0.05787128582596779,-0.006108561530709267,0.048474013805389404,-0.16965557634830475,0.06833712011575699,0.1823965162038803,0.07824311405420303,-0.048851992934942245,0.08214471489191055,0.023762226104736328,0.08456452935934067,0.1103212833404541,0.04804469645023346,0.07109872251749039,-0.004237134009599686,0.022660106420516968,-0.1042766124010086,-0.038656510412693024,0.07318215817213058,-0.0664927139878273,0.11380936205387115,0.13917852938175201,0.0153964189812541,0.03422676399350166,0.028844699263572693,-0.1433980017900467,0.031157582998275757,-0.012764491140842438,-0.18196682631969452,-0.08935920894145966,-0.17643457651138306,-0.16454161703586578,-0.1618186980485916,0.13947166502475739,0.10706699639558792,0.1552230715751648,0.06022249162197113,-0.040227774530649185,0.03418530151247978,0.06811883300542831,0.18484224379062653,-0.006160182878375053,0.17163607478141785,0.09611064195632935,-0.17499445378780365,0.17451968789100647,0.12325482815504074,0.053438570350408554,-0.10494296252727509,0.17929063737392426,-0.0148517657071352,-0.16086113452911377,-0.18489016592502594,-0.15846911072731018,0.18119125068187714,-0.09806070476770401,0.05585501715540886,-0.1510440558195114,0.012827370315790176,0.01989772915840149,-0.018378693610429764,0.17621107399463654,0.14846616983413696,-0.18152856826782227,0.1329972743988037,0.024616755545139313,0.12136100232601166,0.01692311465740204,0.07403669506311417,-0.1458996683359146,0.1252581775188446,-0.0911310613155365,0.017942477017641068,0.15606766939163208,-0.1113681048154831,-0.00576998945325613,0.04476796090602875,-0.04237231984734535,-0.1116660088300705,0.1940474808216095,0.20937123894691467,-0.019183065742254257,-0.07186365127563477,0.11160235852003098,-0.0029988742899149656,0.06521320343017578,-0.08225714415311813,0.08829209953546524,0.14022885262966156,0.04353858530521393,-0.18246349692344666,-0.09715887159109116,-0.05604139342904091,-0.054883286356925964,-0.0981568992137909,0.05275551229715347,0.06963511556386948,0.016098041087388992,0.14858980476856232,-0.09476692229509354,0.16819843649864197,0.17622724175453186,-0.005764718167483807,0.19051310420036316,0.20340783894062042,-0.1138024628162384,0.055000100284814835,0.10908538103103638,0.13821472227573395,0.1750698834657669,0.1725679337978363,-0.007643949240446091,0.11511261761188507,0.09728465974330902,-0.0777902901172638,0.08744718879461288,-0.003565716790035367,0.12327497452497482,0.05117747560143471,0.10968738049268723,0.027834713459014893,-0.1779390275478363,-0.11581552028656006,0.1520453840494156,-0.1346566379070282,-0.16627612709999084,0.03024515137076378,0.1464861035346985,0.007967015728354454,0.05556595325469971,0.13994728028774261,0.0677075907588005,0.09734664112329483,0.06556466966867447,0.08457855880260468,0.19019274413585663,-0.15297898650169373,-0.1635274440050125,0.043828196823596954,0.08751532435417175,-0.016383742913603783,-0.044347960501909256,-0.16533765196800232,0.14680106937885284,-0.08190842717885971,-0.07074236869812012,0.011679500341415405,0.04068649560213089,0.08511041849851608,-0.16293630003929138,0.09157387167215347,0.17241260409355164,0.1963900327682495,-0.03493238240480423,0.19982148706912994,0.015337334014475346,0.04357963800430298,-0.016230974346399307,0.06241984665393829,0.20696373283863068,-0.05744827166199684,-0.03252182900905609,0.11340218037366867,0.02022593840956688,-0.1354094296693802,0.2061176896095276,0.16756148636341095,0.09942158311605453,-0.18050478398799896,-0.1614866405725479,-0.02822308987379074,0.14588549733161926,0.14596734941005707,0.04900640994310379,-0.10516402125358582,0.03781941160559654,0.03963129594922066,-0.07518904656171799,-0.0044895559549331665,-0.009923005476593971,0.015058541670441628,0.09791643172502518,0.11204271763563156,0.15620501339435577,0.10449723154306412,0.19168850779533386,0.12129691988229752,-0.029927309602499008,0.20020657777786255,-0.10801111161708832,0.015572253614664078,-0.056730400770902634,0.20361113548278809,-0.07638716697692871,0.05825917795300484,0.030457179993391037,0.125857874751091,-0.12216290831565857,-0.10221223533153534,0.13518351316452026,0.12241515517234802,0.17882618308067322,-0.17079457640647888,0.18707947432994843,-0.18902932107448578,0.1857658326625824,0.18201060593128204,0.02248869463801384,-0.0038197075482457876,0.20829863846302032,-0.013066373765468597,-0.07439127564430237,-0.08634926378726959,-0.12456302344799042,0.17372366786003113,-0.07302486151456833,-0.02563689649105072,-0.07349521666765213,-0.0794043242931366,-0.032583948224782944,0.18283909559249878,0.04072681814432144,0.005456406623125076,0.11172301322221756,-0.14129869639873505,-0.08778563886880875,-0.020576775074005127,0.05735788494348526,-0.00861300528049469,0.11875211447477341,-0.040576398372650146,0.18791711330413818,-0.010008681565523148,-0.17778518795967102,0.11371368914842606,-0.055007509887218475],[-0.19570569694042206,0.15226615965366364,-0.03659585118293762,0.03811092674732208,-0.1520974487066269,0.119258813560009,-0.19541187584400177,0.07735694199800491,0.0538821667432785,0.18208260834217072,-0.11516664177179337,0.13746120035648346,-0.2066509872674942,-0.0523858368396759,0.17670361697673798,0.14819101989269257,-0.20130281150341034,0.14311529695987701,0.05189090222120285,0.16880612075328827,0.09660301357507706,0.05308525264263153,-0.11561762541532516,0.13021953403949738,0.06312926858663559,-0.09666243940591812,-0.10402778536081314,0.053670525550842285,-0.06027396023273468,0.12260176986455917,-0.1332217901945114,-0.17871813476085663,-0.18171565234661102,-0.18206267058849335,0.05392201244831085,-0.2142338901758194,-0.18217764794826508,-0.17086751759052277,0.007585984654724598,-0.05359846353530884,0.021729379892349243,-0.21041245758533478,0.16554926335811615,-0.13712598383426666,0.06791166216135025,-0.18016840517520905,-0.05171176791191101,-0.20945273339748383,-0.10496918112039566,0.05140385031700134,-0.19028745591640472,-0.10785964876413345,0.14353175461292267,-0.055754587054252625,-0.02269899472594261,0.061524584889411926,0.012526193633675575,-0.024326708167791367,-0.0314226895570755,-0.20660503208637238,-0.1624579280614853,0.008932238444685936,-0.13088880479335785,-0.03513452410697937,0.13179735839366913,0.11909646540880203,0.03231927752494812,-0.12422876805067062,-0.1529145985841751,-0.13271181285381317,-0.20547999441623688,-0.010402124375104904,0.026511844247579575,0.149736687541008,-0.1598448008298874,0.16588245332241058,-0.17682959139347076,-0.056464701890945435,0.09487304836511612,0.05323147028684616,-0.0648183599114418,0.050303757190704346,0.1563982218503952,0.17555008828639984,-0.06970245391130447,-0.02074301615357399,-0.1692468374967575,-0.11653809994459152,0.1153046265244484,0.09608028084039688,0.058419011533260345,-0.21390317380428314,-0.14785633981227875,-0.0592956468462944,-0.12438970059156418,0.10925155133008957,0.07910545915365219,0.06357423216104507,-0.07054977864027023,-0.1510489135980606,-0.13915874063968658,0.016006238758563995,-0.0004076954792253673,0.02072473242878914,-0.06105230748653412,0.002925529610365629,0.09934384375810623,0.1515091210603714,-0.0140761099755764,0.18021191656589508,-0.1096993163228035,0.1461055427789688,-0.03208700567483902,-0.17188318073749542,-0.0621722936630249,-0.09975001960992813,-0.1336842030286789,-0.0607914924621582,0.04445156455039978,0.14899034798145294,0.003957131877541542,-0.10222422331571579,-0.007393809966742992,-0.07850264757871628,0.023915190249681473,-0.13181795179843903,0.1664644032716751,0.018521208316087723,0.1143249049782753,-0.07987035065889359,0.15929795801639557,-0.08694741874933243,-0.02609303593635559,0.025791943073272705,-0.19928692281246185,0.068586565554142,-0.05241653323173523,-0.13255347311496735,0.11230415850877762,0.046206481754779816,0.0893111303448677,0.13214196264743805,0.01928892731666565,-0.1991725116968155,-0.07337617129087448,-0.04197606444358826,-0.11258850246667862,0.12606678903102875,-0.10061044245958328,0.05211921036243439,0.031093284487724304,-0.0963602140545845,0.17592735588550568,-0.04723445326089859,-0.08431719988584518,0.15637002885341644,0.030878107994794846,-0.14206258952617645,0.12085636705160141,0.03247090429067612,0.13291232287883759,0.07744628936052322,0.13152413070201874,0.12269812077283859,-0.20465172827243805,-0.12861113250255585,-0.022710997611284256,0.11496490985155106,-0.046329282224178314,0.047811172902584076,0.00822673924267292,-0.05049828439950943,-0.20721589028835297,-0.04069238156080246,-0.17372648417949677,0.08115082234144211,-0.20547272264957428,-0.11174454540014267,-0.1631654053926468,0.01462353952229023,-0.08652853220701218,0.028262421488761902,0.11259081214666367,-0.005799431353807449,-0.15203066170215607,-0.15120284259319305,0.10637284070253372,0.18036909401416779,-0.04951252043247223,0.1529180258512497,-0.07182086259126663,0.013807490468025208,0.14338548481464386,-0.09471765905618668,-0.02035534754395485,0.011718586087226868,0.0385289266705513,-0.12219584733247757,-0.0772547647356987,0.1352362483739853,-0.03435421735048294,0.07563335448503494,0.15525858104228973,-0.09637486189603806,-0.004916979931294918,-0.06492503732442856,-0.09574713557958603,0.010613331571221352,-0.1717924028635025,0.10447042435407639,-0.1817210167646408,0.005601532757282257,0.05953245609998703,-0.18131230771541595,-0.07779929786920547,0.12994994223117828,-0.20411626994609833,-0.1483113318681717,0.11281172186136246,-0.1837386041879654,-0.11954062432050705,-0.21389596164226532,0.06474704295396805,-0.16974084079265594,0.11153688281774521,-0.08423195034265518,0.17806129157543182,-0.1219356581568718,-0.14075873792171478,0.048037223517894745,-0.14108897745609283,-0.19261203706264496,-0.06727781146764755,-0.06699459999799728,0.14522390067577362,-0.035258546471595764,-0.11460817605257034,0.15724678337574005,0.09237951785326004,-0.10794287174940109,0.10629237443208694,-0.11223236471414566,0.14936859905719757,-0.0761825367808342,-0.17851577699184418,-0.06771943718194962,-0.08227012306451797,-0.009078383445739746,0.14287503063678741,0.03191303461790085,-0.19639189541339874,-0.0031038126908242702,-0.15355344116687775,-0.018555331975221634,0.1482977718114853,-0.09369754046201706,0.019673243165016174,-0.013988194987177849,0.09903641790151596,-0.09703391045331955,0.017942078411579132,-0.05549737811088562,0.038866907358169556,0.019870657473802567,-0.1812276691198349,0.041415736079216,0.17252109944820404,-0.05153636634349823,0.0928930714726448,-0.10383705049753189,-0.058901652693748474,0.08576718717813492,0.09668845683336258,0.18353615701198578,0.1447431594133377,-0.04375642538070679,-0.20072956383228302,0.09582867473363876,-0.08086509257555008,-0.02564546838402748,-0.09140678495168686,-0.11462307721376419,0.11206384748220444,0.12690956890583038,-0.15240104496479034,-0.05595438927412033,-0.09491727501153946,-0.08279357105493546,-0.021993257105350494,-0.022434715181589127,-0.20211119949817657,0.16427777707576752,0.08081930130720139,-0.05024433135986328,-0.005971735343337059,0.03403269499540329,0.15502820909023285,-0.18278013169765472,-0.11028174310922623,-0.21213294565677643,0.14372225105762482,-0.1096624806523323,-0.05773422122001648,0.0087131317704916,-0.1956131011247635,-0.09091795235872269,0.1711793690919876,0.1500532478094101,0.1691795438528061,-0.09085965901613235,0.15147073566913605,-0.16156937181949615,0.08530551940202713,-0.09886740893125534,-0.17767779529094696,-0.03778691589832306,0.05710461735725403,-0.12145965546369553,-0.08086418360471725,-0.1721404641866684,-0.07895118743181229,0.08453132957220078,-0.16697339713573456,0.13980476558208466,0.09835103899240494,-0.09665542095899582,0.07878836244344711,-0.10202740877866745,-0.20516107976436615,0.1425149291753769,0.03475858271121979,0.09741450101137161,0.15469475090503693,-0.033284224569797516,-0.2100556343793869,0.15937145054340363,-0.214225634932518,-0.05560677498579025,-0.033289581537246704,0.1775280386209488,0.18469054996967316,0.16037388145923615,0.15425615012645721,-0.022638417780399323,0.11786415427923203,0.18113671243190765,-0.20732806622982025,-0.10274114459753036,0.03592332452535629,0.13632754981517792,-0.03900890052318573,0.10273369401693344,0.06229374557733536,0.09907766431570053,-0.17739973962306976,-0.0032054129987955093,-0.013243244960904121,0.1799880713224411,0.022658798843622208,0.014560263603925705,0.013141276314854622,-0.18311257660388947,0.034365080296993256,0.13216860592365265,-0.12064375728368759,-0.058495692908763885,-0.09184906631708145,0.16380153596401215,0.13099263608455658,-0.17007233202457428,-0.12390919774770737,-0.2116096466779709,0.06853789836168289,0.09163040667772293,-0.0713898316025734,0.07112810760736465,-0.08020099252462387,0.04666915535926819,0.054203182458877563,-0.16510342061519623,-0.1810751110315323,-0.016148623079061508,-0.13520725071430206,-0.1945715695619583,0.03989417105913162,0.1407618373632431,0.10481014102697372,-0.1524382382631302,-0.11371592432260513,0.16630057990550995]],"biases":[0.08317338675260544,0.10615174472332001,0.0183260515332222]},{"weights":[[-1.2481293678283691,-1.4335050582885742,-0.15259864926338196],[-1.2756887674331665,-1.1334946155548096,0.048517145216464996],[-1.296526312828064,-1.128645420074463,0.09262195974588394],[-1.39523446559906,-1.2161636352539062,0.09185132384300232],[-1.3417446613311768,-1.2107747793197632,0.02621609903872013],[-1.3915913105010986,-1.2771984338760376,0.15052232146263123],[-1.277904748916626,-1.3516267538070679,-0.16563501954078674],[-1.1980857849121094,-1.2545897960662842,0.050565820187330246],[-1.2473565340042114,-1.3317457437515259,-0.042474210262298584],[-1.3984237909317017,-1.3002128601074219,0.11722161620855331],[-1.235711932182312,-1.2789548635482788,0.11562366038560867],[-1.2173912525177002,-1.2859911918640137,0.14466936886310577],[-1.1338123083114624,-1.361633539199829,-0.026326162740588188],[-1.2286556959152222,-1.456744909286499,-0.04521094262599945],[-1.2682207822799683,-1.333284854888916,0.025388438254594803],[-1.365895390510559,-1.142998456954956,0.1019369438290596],[-1.2909470796585083,-1.1671966314315796,-0.06513050198554993],[-1.2111448049545288,-1.142651081085205,0.14347520470619202],[-1.4372719526290894,-1.2637643814086914,0.1549118608236313],[-1.135215163230896,-1.3264744281768799,-0.023457279428839684],[-1.2385555505752563,-1.3185265064239502,0.1694141924381256],[-1.364755392074585,-1.1756703853607178,-0.06944085657596588],[-1.2217780351638794,-1.389876365661621,-0.04155705124139786],[-1.158138394355774,-1.3299236297607422,-0.1550176590681076],[-1.3877893686294556,-1.2456732988357544,0.16227824985980988],[-1.3663885593414307,-1.2510923147201538,-0.026988953351974487],[-1.1839617490768433,-1.2975658178329468,-0.09464520215988159],[-1.1756328344345093,-1.3679298162460327,-0.19630149006843567],[-1.263215184211731,-1.261325716972351,0.10325588285923004],[-1.2364225387573242,-1.261566400527954,-0.058439966291189194],[-1.3709795475006104,-1.1208794116973877,0.06748796254396439],[-1.2478903532028198,-1.112097144126892,-0.1881302148103714],[-1.4450303316116333,-1.1449331045150757,0.07498817145824432],[-1.414252758026123,-1.1487395763397217,-0.08495699614286423],[-1.3441938161849976,-1.1810719966888428,0.05524303764104843],[-1.1352604627609253,-1.2978655099868774,0.09756797552108765],[-1.1990491151809692,-1.229486107826233,-0.1838078796863556],[-1.2760275602340698,-1.2409043312072754,-0.03152470290660858],[-1.1729241609573364,-1.3009257316589355,-0.18178869783878326],[-1.2286063432693481,-1.3594765663146973,0.024031249806284904],[-1.3502683639526367,-1.29150390625,0.02552308328449726]],"biases":[-1.0292919874191284,-1.3014997243881226,-1.2850594520568848,-1.0983455181121826,-1.1565442085266113,-1.0400002002716064,-1.0781145095825195,-1.254783034324646,-1.1276758909225464,-1.0079303979873657,-1.1913020610809326,-1.2020937204360962,-1.2091645002365112,-1.018683671951294,-1.1021389961242676,-1.1943175792694092,-1.2441940307617188,-1.3483555316925049,-1.0006937980651855,-1.239086389541626,-1.1435317993164062,-1.1591826677322388,-1.0874805450439453,-1.210273265838623,-1.0649539232254028,-1.0800243616104126,-1.2152615785598755,-1.1525012254714966,-1.171522617340088,-1.197209119796753,-1.203014850616455,-1.3338141441345215,-1.1038398742675781,-1.129946231842041,-1.167368769645691,-1.259007215499878,-1.262507677078247,-1.1738637685775757,-1.2161065340042114,-1.1018730401992798,-1.0490394830703735]}],"inputLookup":null,"inputLookupLength":0,"outputLookup":null,"outputLookupLength":0,"options":{"inputSize":0,"outputSize":0,"binaryThresh":0.5,"hiddenLayers":[3],"activation":"sigmoid"},"trainOpts":{"activation":"sigmoid","iterations":20000,"errorThresh":0.005,"log":false,"logPeriod":10,"leakyReluAlpha":0.01,"learningRate":0.3,"momentum":0.1,"callbackPeriod":10,"timeout":"Infinity","beta1":0.9,"beta2":0.999,"epsilon":1e-8},"expresionesRegulares":["/\\b(AGRICULTURA)\\b/i","/\\b(DEL)\\b/i","/\\b(LATÍN)\\b/i","/\\b(AGRI)\\b/i","/\\b(CAMPO)\\b/i","/\\b(CULTŪRA)\\b/i","/\\b(CULTIVO)\\b/i","/\\b(CRIANZA)\\b/i","/\\b(CONJUNTO)\\b/i","/\\b(ACTIVIDADES)\\b/i","/\\b(ECONÓMICAS)\\b/i","/\\b(TÉCNICAS)\\b/i","/\\b(RELACIONADAS)\\b/i","/\\b(CON)\\b/i","/\\b(TRATAMIENTO)\\b/i","/\\b(SUELO)\\b/i","/\\b(TIERRA)\\b/i","/\\b(PARA)\\b/i","/\\b(PRODUCCIÓN)\\b/i","/\\b(ALIMENTOS)\\b/i","/\\b(COMPRENDE)\\b/i","/\\b(TODO)\\b/i","/\\b(ACCIONES)\\b/i","/\\b(HUMANAS)\\b/i","/\\b(QUE)\\b/i","/\\b(TRANSFORMA)\\b/i","/\\b(MEDIO)\\b/i","/\\b(AMBIENTE)\\b/i","/\\b(NATURAL)\\b/i","/\\b(INTEGRAN)\\b/i","/\\b(LLAMADO)\\b/i","/\\b(SECTOR)\\b/i","/\\b(AGRÍCOLA)\\b/i","/\\b(TODAS)\\b/i","/\\b(ABARCA)\\b/i","/\\b(DICHO)\\b/i","/\\b(TIENEN)\\b/i","/\\b(SU)\\b/i","/\\b(FUNDAMENTO)\\b/i","/\\b(EXPLOTACIÓN)\\b/i","/\\b(RECURSOS)\\b/i","/\\b(ORIGINA)\\b/i","/\\b(FAVORECIDA)\\b/i","/\\b(POR)\\b/i","/\\b(ACCIÓN)\\b/i","/\\b(SER)\\b/i","/\\b(HUMANO)\\b/i","/\\b(VEGETALES)\\b/i","/\\b(COMO)\\b/i","/\\b(CEREALES)\\b/i","/\\b(FRUTAS)\\b/i","/\\b(HORTALIZAS)\\b/i","/\\b(PASTOS)\\b/i","/\\b(CULTIVADOS)\\b/i","/\\b(FORRAJES)\\b/i","/\\b(FIBRAS)\\b/i","/\\b(UTILIZADAS)\\b/i","/\\b(INDUSTRIA)\\b/i","/\\b(TEXTIL)\\b/i","/\\b(CULTIVOS)\\b/i","/\\b(ENERGÉTICOS)\\b/i","/\\b(ETC)\\b/i","/\\b(TAMBIÉN)\\b/i","/\\b(INCLUYE)\\b/i","/\\b(DEMANDA)\\b/i","/\\b(GLOBAL)\\b/i","/\\b(RAMO)\\b/i","/\\b(SERVICIO)\\b/i","/\\b(ALIMENTACIÓN)\\b/i","/\\b(MUNDIAL)\\b/i","/\\b(DEPENDE)\\b/i","/\\b(GRAN)\\b/i","/\\b(MEDIDA)\\b/i","/\\b(CLIMA)\\b/i","/\\b(PODER)\\b/i","/\\b(HACER)\\b/i","/\\b(FÉRTIL)\\b/i","/\\b(CONSERVA)\\b/i","/\\b(ORIGEN)\\b/i","/\\b(PROPIEDAD)\\b/i","/\\b(PRIVADA)\\b/i","/\\b(ENTREGADA)\\b/i","/\\b(A)\\b/i","/\\b(FAMILIAS)\\b/i","/\\b(ESTABLECERSE)\\b/i","/\\b(ACTIVIDAD)\\b/i","/\\b(IMPORTANCIA)\\b/i","/\\b(ESTRATÉGICA)\\b/i","/\\b(BASE)\\b/i","/\\b(FUNDAMENTAL)\\b/i","/\\b(DESARROLLO)\\b/i","/\\b(AUTOSUFICIENTE)\\b/i","/\\b(DINERO)\\b/i","/\\b(NACIONES)\\b/i","/\\b(CIENCIA)\\b/i","/\\b(ESTUDIA)\\b/i","/\\b(PRÁCTICA)\\b/i","/\\b(AGRONOMÍA)\\b/i","/\\b(COMIENZO)\\b/i","/\\b(TRILLA)\\b/i","/\\b(ANTIGUO)\\b/i","/\\b(EGIPTO)\\b/i","/\\b(COMENZ)\\b/i","/\\b(VEZ)\\b/i","/\\b(PERSONAS)\\b/i","/\\b(PLANTARON)\\b/i","/\\b(HIERBAS)\\b/i","/\\b(SUS)\\b/i","/\\b(SEMILLAS)\\b/i","/\\b(GRANOS)\\b/i","/\\b(CERCANO)\\b/i","/\\b(ORIENTE)\\b/i","/\\b(GUANGDONG)\\b/i","/\\b(CHINA)\\b/i","/\\b(LATINOAMÉRICA)\\b/i","/\\b(TAL)\\b/i","/\\b(VERDURAS)\\b/i","/\\b(RAÍZ)\\b/i","/\\b(PER)\\b/i","/\\b(INDONESIA)\\b/i","/\\b(CRECIENTE)\\b/i","/\\b(SUDOESTE)\\b/i","/\\b(ASIÁTICO)\\b/i","/\\b(INDIA)\\b/i","/\\b(FUERON)\\b/i","/\\b(LUGARES)\\b/i","/\\b(DONDE)\\b/i","/\\b(SE)\\b/i","/\\b(DESARROLLARON)\\b/i","/\\b(INICIALMENTE)\\b/i","/\\b(SIEMBRA)\\b/i","/\\b(COSECHA)\\b/i","/\\b(HIDRÁULICA)\\b/i","/\\b(PLANTAS)\\b/i","/\\b(HABÍAN)\\b/i","/\\b(SIDO)\\b/i","/\\b(RECOGIDAS)\\b/i","/\\b(PREVIAMENTE)\\b/i","/\\b(NATURALEZA)\\b/i","/\\b(INDEPENDIENTE)\\b/i","/\\b(PRODUJO)\\b/i","/\\b(NORTE)\\b/i","/\\b(SUR)\\b/i","/\\b(SAHEL)\\b/i","/\\b(FRICA)\\b/i","/\\b(NUEVA)\\b/i","/\\b(GUINEA)\\b/i","/\\b(VARIAS)\\b/i","/\\b(REGIONES)\\b/i","/\\b(AMÉRICAS)\\b/i","/\\b(OCHO)\\b/i","/\\b(LLAMADOS)\\b/i","/\\b(FUNDADORES)\\b/i","/\\b(NEOLÍTICO)\\b/i","/\\b(MARCAS)\\b/i","/\\b(ALMIDÓN)\\b/i","/\\b(IMPLEMENTOS)\\b/i","/\\b(PIEDRA)\\b/i","/\\b(ENCONTRARON)\\b/i","/\\b(SUGIEREN)\\b/i","/\\b(CAMOTE)\\b/i","/\\b(HA)\\b/i","/\\b(CULTIVADO)\\b/i","/\\b(AH)\\b/i","/\\b(AL)\\b/i","/\\b(MENOS)\\b/i","/\\b(DESDE)\\b/i","/\\b(HACE)\\b/i","/\\b(AÑOS)\\b/i","/\\b(CASTAÑAS)\\b/i","/\\b(AGUA)\\b/i","/\\b(FRIJOLES)\\b/i","/\\b(PUDIERON)\\b/i","/\\b(HABER)\\b/i","/\\b(CERCA)\\b/i","/\\b(CUEVA)\\b/i","/\\b(ESPÍRITU)\\b/i","/\\b(TAILANDIA)\\b/i","/\\b(AÑO)\\b/i","/\\b(C)\\b/i","/\\b(PRIMIGENIO)\\b/i","/\\b(SUELE)\\b/i","/\\b(FECHAR)\\b/i","/\\b(ALREDEDOR)\\b/i","/\\b(TRAS)\\b/i","/\\b(LTIMA)\\b/i","/\\b(GLACIACIÓN)\\b/i","/\\b(MUY)\\b/i","/\\b(PROBABLEMENTE)\\b/i","/\\b(CONSECUENCIA)\\b/i","/\\b(ELLA)\\b/i","/\\b(COMUNIDADES)\\b/i","/\\b(CAZADORES)\\b/i","/\\b(RECOLECTORES)\\b/i","/\\b(SEDENTARIZARON)\\b/i","/\\b(EMPEZARON)\\b/i","/\\b(DOMESTICAR)\\b/i","/\\b(ANIMALES)\\b/i","/\\b(SALVAJES)\\b/i","/\\b(YA)\\b/i","/\\b(ALIMENTABAN)\\b/i","/\\b(OBJETIVO)\\b/i","/\\b(PROVEERSE)\\b/i","/\\b(FUENTE)\\b/i","/\\b(ESTABLE)\\b/i","/\\b(ALIMENTO)\\b/i","/\\b(SIN)\\b/i","/\\b(TENER)\\b/i","/\\b(VIAJAR)\\b/i","/\\b(BUSCA)\\b/i","/\\b(REVOLUCIÓN)\\b/i","/\\b(NEOLÍTICA)\\b/i","/\\b(SUBSECUENTE)\\b/i","/\\b(CONLLEV)\\b/i","/\\b(ENORMES)\\b/i","/\\b(CAMBIOS)\\b/i","/\\b(FORMA)\\b/i","/\\b(VIDA)\\b/i","/\\b(SERES)\\b/i","/\\b(HUMANOS)\\b/i","/\\b(LLEV)\\b/i","/\\b(FINALMENTE)\\b/i","/\\b(APARICIÓN)\\b/i","/\\b(CIVILIZACIÓN)\\b/i","/\\b(MISMAS)\\b/i","/\\b(REAS)\\b/i","/\\b(POCOS)\\b/i","/\\b(MILENIOS)\\b/i","/\\b(DESPUÉS)\\b/i","/\\b(ALGUNAS)\\b/i","/\\b(ABANDONARON)\\b/i","/\\b(VIEJO)\\b/i","/\\b(MODO)\\b/i","/\\b(CAZAR)\\b/i","/\\b(RECOLECTAR)\\b/i","/\\b(FRUTOS)\\b/i","/\\b(CULTIVAR)\\b/i","/\\b(EXPERTOS)\\b/i","/\\b(LLAMAN)\\b/i","/\\b(ESTE)\\b/i","/\\b(CAMBIO)\\b/i","/\\b(FARRO)\\b/i","/\\b(CEBADA)\\b/i","/\\b(CULTIVARON)\\b/i","/\\b(BORREGOS)\\b/i","/\\b(CABRAS)\\b/i","/\\b(DOMESTICARON)\\b/i","/\\b(LUGAR)\\b/i","/\\b(POCO)\\b/i","/\\b(NACIENTE)\\b/i","/\\b(LLEG)\\b/i","/\\b(SUBCONTINENTE)\\b/i","/\\b(INDIO)\\b/i","/\\b(CULTIV)\\b/i","/\\b(TRIGO)\\b/i","/\\b(DEMUESTRAN)\\b/i","/\\b(EXCAVACIONES)\\b/i","/\\b(ARQUEOLÓGICAS)\\b/i","/\\b(MEHRGARH)\\b/i","/\\b(BALUCHISTÁN)\\b/i","/\\b(HOY)\\b/i","/\\b(PAKISTÁN)\\b/i","/\\b(CAMPESINA)\\b/i","/\\b(ATRINCHER)\\b/i","/\\b(ORILLAS)\\b/i","/\\b(NILO)\\b/i","/\\b(ESTO)\\b/i","/\\b(DEBIDO)\\b/i","/\\b(AÚN)\\b/i","/\\b(RIEGO)\\b/i","/\\b(DURANTE)\\b/i","/\\b(TIEMPO)\\b/i","/\\b(DESARROLL)\\b/i","/\\b(LEJANO)\\b/i","/\\b(ARROZ)\\b/i","/\\b(PRINCIPAL)\\b/i","/\\b(AGRICULTORES)\\b/i","/\\b(LOGRARON)\\b/i","/\\b(TARO)\\b/i","/\\b(PAPA)\\b/i","/\\b(COLOCASIA)\\b/i","/\\b(ESCULENTA)\\b/i","/\\b(FRIJOL)\\b/i","/\\b(MUNG)\\b/i","/\\b(VIGNA)\\b/i","/\\b(RADIATA)\\b/i","/\\b(SOJA)\\b/i","/\\b(AZUKI)\\b/i","/\\b(ANGULARIS)\\b/i","/\\b(COMPLEMENTO)\\b/i","/\\b(ESTAS)\\b/i","/\\b(NUEVAS)\\b/i","/\\b(FUENTES)\\b/i","/\\b(HIDRATOS)\\b/i","/\\b(CARBONO)\\b/i","/\\b(RED)\\b/i","/\\b(PESCA)\\b/i","/\\b(ALTAMENTE)\\b/i","/\\b(ORGANIZADA)\\b/i","/\\b(RÍOS)\\b/i","/\\b(LAGOS)\\b/i","/\\b(COSTAS)\\b/i","/\\b(OCÉANO)\\b/i","/\\b(TRAJO)\\b/i","/\\b(CONSIGO)\\b/i","/\\b(GRANDES)\\b/i","/\\b(VOLÚMENES)\\b/i","/\\b(PROTEÍNAS)\\b/i","/\\b(ESENCIALES)\\b/i","/\\b(ESTOS)\\b/i","/\\b(NUEVOS)\\b/i","/\\b(MÉTODOS)\\b/i","/\\b(AGRÍCOLAS)\\b/i","/\\b(ORIGINARON)\\b/i","/\\b(AUGE)\\b/i","/\\b(POBLACIÓN)\\b/i","/\\b(HUMANA)\\b/i","/\\b(EMPEQUEÑECI)\\b/i","/\\b(EXPANSIONES)\\b/i","/\\b(ANTERIORES)\\b/i","/\\b(CONTINÚA)\\b/i","/\\b(ACTUALIDAD)\\b/i","/\\b(ARADO)\\b/i","/\\b(JALADO)\\b/i","/\\b(BUEYES)\\b/i","/\\b(UTILIZ)\\b/i","/\\b(CHINOS)\\b/i","/\\b(USARON)\\b/i","/\\b(ARADOS)\\b/i","/\\b(MANO)\\b/i","/\\b(AUN)\\b/i","/\\b(ANTES)\\b/i","/\\b(SUMERIOS)\\b/i","/\\b(DESARROLLADO)\\b/i","/\\b(PRINCIPALES)\\b/i","/\\b(INCLUYENDO)\\b/i","/\\b(INTENSIVO)\\b/i","/\\b(ESCALA)\\b/i","/\\b(MONOCULTIVO)\\b/i","/\\b(USO)\\b/i","/\\b(OBRA)\\b/i","/\\b(ESPECIALIZADA)\\b/i","/\\b(PARTICULARMENTE)\\b/i","/\\b(LARGO)\\b/i","/\\b(VÍA)\\b/i","/\\b(ACUÁTICA)\\b/i","/\\b(AHORA)\\b/i","/\\b(CONOCIDA)\\b/i","/\\b(CANAL)\\b/i","/\\b(SHATT)\\b/i","/\\b(ARAB)\\b/i","/\\b(DELTA)\\b/i","/\\b(GOLFO)\\b/i","/\\b(PÉRSICO)\\b/i","/\\b(CONFLUENCIA)\\b/i","/\\b(TIGRIS)\\b/i","/\\b(UFRATES)\\b/i","/\\b(DOMESTICACIÓN)\\b/i","/\\b(ESPECIES)\\b/i","/\\b(SILVESTRES)\\b/i","/\\b(UROS)\\b/i","/\\b(MUFLONES)\\b/i","/\\b(GANADO)\\b/i","/\\b(VACUNO)\\b/i","/\\b(OVINO)\\b/i","/\\b(RESPECTIVAMENTE)\\b/i","/\\b(DIO)\\b/i","/\\b(PASO)\\b/i","/\\b(UTILIZACIÓN)\\b/i","/\\b(COMIDA)\\b/i","/\\b(FIBRA)\\b/i","/\\b(BESTIAS)\\b/i","/\\b(CARGA)\\b/i","/\\b(PASTOR)\\b/i","/\\b(UNI)\\b/i","/\\b(AGRICULTOR)\\b/i","/\\b(PROVEEDOR)\\b/i","/\\b(ESENCIAL)\\b/i","/\\b(SOCIEDADES)\\b/i","/\\b(SEDENTARIAS)\\b/i","/\\b(SEMINÓMADAS)\\b/i","/\\b(MAÍZ)\\b/i","/\\b(MANDIOCA)\\b/i","/\\b(ARRURRUZ)\\b/i","/\\b(DOMESTICADAS)\\b/i","/\\b(PRIMERA)\\b/i","/\\b(CONTINENTE)\\b/i","/\\b(AMERICANO)\\b/i","/\\b(REMONTAN)\\b/i","/\\b(CRISTO)\\b/i"],"oracionClaseDict":{"0":"La agricultura (del latín agri ‘campo’ y cultūra ‘cultivo’, ‘crianza’)1​2​ es el conjunto de actividades económicas y técnicas relacionadas con el tratamiento del suelo y el cultivo de la tierra para la producción de alimentos.","1":"Comprende todo un conjunto de acciones humanas que transforma el medio ambiente natural.","2":"Las acciones relacionadas son las que integran el llamado sector agrícola.","3":"Todas las actividades económicas que abarca dicho sector tienen su fundamento en la explotación de los recursos que la tierra origina, favorecida por la acción del ser humano: alimentos vegetales como cereales, frutas, hortalizas, pastos cultivados y forrajes; fibras utilizadas por la industria textil; cultivos energéticos etc.","4":"La agricultura3​ también incluye una demanda global del ramo y el servicio de la alimentación mundial depende en gran medida del clima y de las técnicas para poder hacer la tierra fértil, conserva su origen en la propiedad privada y en la explotación de la tierra entregada a familias para poder establecerse.","5":"Es una actividad de gran importancia estratégica como base fundamental para el desarrollo autosuficiente y dinero de las naciones.","6":"La ciencia que estudia la práctica de la agricultura es la agronomía.","7":"Comienzo de la agricultura Trilla de cereales en el antiguo Egipto.","8":"La agricultura comenzó una vez que las personas plantaron hierbas por sus semillas (o granos) en el Cercano Oriente, en Guangdong en China y en Latinoamérica; y tal vez plantaron verduras de raíz en Perú e Indonesia, también.","9":"El Creciente Fértil del sudoeste asiático, Egipto e India fueron los lugares donde se desarrollaron inicialmente la siembra y cosecha hidráulica de plantas que habían sido recogidas previamente en la naturaleza.","10":"El desarrollo independiente de la agricultura se produjo en el norte y sur de China, en el Sahel de África, en Nueva Guinea y en varias regiones de las Américas.","11":"Los ocho cultivos llamados fundadores del Neolítico de la agricultura, marcas de almidón en implementos de piedra que se encontraron en Nueva Guinea sugieren que el camote se ha cultivado ahí al menos desde hace 30 000 años; Las castañas de agua y los frijoles pudieron haber sido cultivados cerca de la Cueva del Espíritu, en Tailandia desde el año 11 000 a 7500 a.","12":"C.","13":"El desarrollo primigenio de la agricultura en el creciente fértil se suele fechar hace alrededor del 9500 a.","14":"C., tras la última glaciación y muy probablemente como consecuencia de ella.","15":"Las comunidades de cazadores-recolectores del Oriente Medio se sedentarizaron y empezaron a domesticar animales y plantas salvajes de los que ya se alimentaban con el objetivo de proveerse de una fuente estable de alimento sin tener que viajar en su busca.","16":"La revolución neolítica subsecuente conllevó enormes cambios en la forma de vida de los seres humanos y llevó finalmente a la aparición de la civilización\" la revolución en las mismas áreas unos pocos milenios después.","17":"Alrededor del año 9000 a.","18":"C., algunas personas abandonaron el viejo modo de vida de cazar animales y recolectar frutos para establecerse y cultivar.","19":"Los expertos llaman a este gran cambio la \"revolución neolítica\".","20":"El farro y la cebada se cultivaron en el Cercano Oriente alrededor del año 8000 a.","21":"C.; borregos y cabras se domesticaron en este lugar poco después.","22":"En el año 7000 a.","23":"C., la naciente agricultura llegó a Egipto.","24":"Por lo menos desde 7000 a.","25":"C., en el subcontinente indio se cultivó trigo y cebada, como lo demuestran excavaciones arqueológicas en Mehrgarh en Baluchistán, en lo que hoy es Pakistán.","26":"En el año 6000 a.","27":"C., la agricultura campesina se atrincheró en las orillas del Nilo.","28":"Esto debido al poco desarrollo aún de las técnicas de riego.","29":"Durante este tiempo, la agricultura se desarrolló de forma independiente en el Lejano Oriente, con el arroz, en lugar de trigo, como cultivo principal.","30":"Los agricultores de China e Indonesia lograron domesticar el taro o papa china (Colocasia esculenta) y el frijol mung (Vigna radiata), la soja y el azuki (Vigna angularis).","31":"Como complemento a estas nuevas fuentes de hidratos de carbono, una red de pesca altamente organizada en los ríos, lagos y las costas del océano en estas áreas trajo consigo grandes volúmenes de proteínas esenciales.","32":"En conjunto, estos nuevos métodos agrícolas y de pesca originaron un auge de la población humana que empequeñeció todas las expansiones anteriores y que continúa en la actualidad.","33":"El arado jalado por bueyes se utilizó desde el 5000 a.","34":"C.","35":"Los chinos usaron arados de mano aun antes; En 5000 a.","36":"C., los sumerios habían desarrollado las principales técnicas agrícolas, incluyendo el cultivo intensivo de la tierra a gran escala, el monocultivo, técnicas de riego y el uso de mano de obra especializada, particularmente a lo largo de la vía acuática ahora conocida como el canal de Shatt al-Arab, del delta de Golfo Pérsico a la confluencia de los ríos Tigris y Éufrates.","37":"La domesticación de especies silvestres: uros y muflones en ganado vacuno y ovino, respectivamente, dio paso a la utilización a gran escala de animales para comida/fibra y como bestias de carga.","38":"El pastor se unió al agricultor como un proveedor esencial para las sociedades sedentarias y seminómadas.","39":"El maíz, la mandioca y el arrurruz fueron domesticadas por primera vez en el continente americano y se remontan al 5200 antes de Cristo (a.","40":"C.)."}}