{"type":"NeuralNetwork","sizes":[390,3,41],"layers":[{"weights":[],"biases":[]},{"weights":[[-0.9530193209648132,1.078132152557373,-0.008910981006920338,0.06454205513000488,-0.04114396125078201,0.02518732100725174,-0.4692338705062866,0.09164094179868698,-0.23262928426265717,0.03410923480987549,0.1404239982366562,0.4356720447540283,-0.02525259740650654,-0.12141527980566025,0.10822466760873795,-0.03513692691922188,0.5991524457931519,1.3086419105529785,0.1200077012181282,0.06243935227394104,0.0379682220518589,-0.09084343910217285,0.07870179414749146,0.2053803950548172,-0.8538607954978943,0.1763983517885208,-0.03569012135267258,0.20811714231967926,0.15571065247058868,0.013120786286890507,-0.12648506462574005,-0.13727077841758728,-0.1589575856924057,-0.46077635884284973,0.11317531019449234,-0.19831350445747375,-0.059260666370391846,0.47623008489608765,0.09579668194055557,0.4159015715122223,0.031490955501794815,0.09618263691663742,-0.2239270806312561,0.5740432739257812,0.1147427037358284,-0.21459516882896423,-0.1353466957807541,-0.1298096925020218,1.6037172079086304,-1.830135703086853,-0.17544908821582794,0.09390696883201599,-0.022123243659734726,0.09246872365474701,-0.04313747584819794,0.00018454073870088905,-0.12475567311048508,0.020517565310001373,-0.055165257304906845,-0.05149703845381737,0.12040328979492188,0.088532455265522,1.2749971151351929,0.34685689210891724,0.4780755639076233,0.3369212746620178,0.2690718173980713,0.2872459888458252,0.40520161390304565,0.3389461040496826,0.6079419851303101,0.4167727828025818,0.5748971104621887,0.4813873767852783,0.2890411615371704,0.6181660890579224,-0.599149763584137,0.30465662479400635,0.6309699416160583,0.5631178021430969,0.48109257221221924,0.645398736000061,-1.7611629962921143,0.5307435989379883,0.20198361575603485,0.10172800719738007,-0.1806151270866394,0.08695851266384125,-0.19217362999916077,-0.01839984953403473,-1.2674838304519653,-0.16818960011005402,-0.10677079111337662,-0.09100150316953659,-1.2321337461471558,-1.376293659210205,-1.2835723161697388,-1.3125591278076172,-1.468572735786438,-1.4641302824020386,-1.8395894765853882,-0.6480764746665955,0.8229109048843384,0.6567243933677673,0.3114589750766754,0.7129182815551758,0.7354099750518799,0.5277010202407837,0.6268209218978882,0.5414630174636841,0.2345820814371109,-0.17039842903614044,0.7450867891311646,0.8894513249397278,0.6147180795669556,0.5598328113555908,0.6557037830352783,0.7314190864562988,0.8414829969406128,0.6244614124298096,-1.2076162099838257,0.1539624184370041,0.22653885185718536,-0.15931282937526703,-0.025808259844779968,0.22837691009044647,-0.09910821914672852,1.376054286956787,0.10325996577739716,0.18812693655490875,0.13092388212680817,0.1772661656141281,0.16623742878437042,0.16716694831848145,0.09394829720258713,0.23882466554641724,-0.1481740027666092,0.1966368705034256,0.16879163682460785,-0.2566823363304138,0.118702232837677,0.10478749871253967,0.00012669089483097196,-0.0549168735742569,0.20086319744586945,0.42459771037101746,0.3420088589191437,-0.04558146744966507,0.054593250155448914,0.02326151914894581,0.15629395842552185,0.24528515338897705,0.08273762464523315,0.014733700081706047,-0.02560918778181076,0.2737758457660675,0.1986408233642578,0.061969682574272156,-0.03482542559504509,0.26731088757514954,-0.01027466356754303,0.28910085558891296,0.06686133146286011,0.14847585558891296,0.6597135663032532,0.4337155222892761,-0.1607850044965744,-0.9415565729141235,-0.02941940352320671,-0.07749848067760468,0.1845223605632782,0.20451074838638306,0.24272547662258148,0.06852814555168152,-0.07681575417518616,0.10165353119373322,0.03827429935336113,0.07680021971464157,1.6112263202667236,2.088982343673706,-1.1955139636993408,-1.0858681201934814,-1.0585477352142334,-1.0527706146240234,1.01542067527771,1.201026439666748,1.023818016052246,0.8768619298934937,1.0745466947555542,0.8773478865623474,1.0054802894592285,0.2500584125518799,0.04338664188981056,0.2014778107404709,-0.05635526031255722,0.17614658176898956,-0.020445048809051514,-0.16479986906051636,0.14840586483478546,-0.13423268496990204,0.04283733293414116,0.2544308602809906,0.07598087191581726,0.1636543720960617,0.16134849190711975,0.02176627516746521,0.05453953146934509,0.1867625117301941,0.14362232387065887,0.1339256912469864,0.17506489157676697,0.1421624720096588,0.22731627523899078,0.08883810043334961,-0.012204911559820175,0.02889655902981758,-0.49439793825149536,-0.05994661524891853,-0.06492569297552109,0.019282851368188858,0.09043806791305542,-0.08688271045684814,-0.0971527099609375,0.23331142961978912,-0.08990101516246796,0.04809233546257019,0.019753407686948776,0.2197302132844925,1.3945122957229614,-0.13282926380634308,-0.4300263226032257,-0.5003992915153503,-0.11675143241882324,-0.3057945668697357,-0.23596973717212677,-0.32298412919044495,-0.14790770411491394,0.019166817888617516,0.15758930146694183,0.6209325194358826,0.05820460617542267,-0.8174479007720947,-0.6294864416122437,-0.7394347190856934,1.0421463251113892,1.2946975231170654,1.0684707164764404,0.6580551266670227,1.0040109157562256,0.8615588545799255,1.0646864175796509,0.15646997094154358,-0.1164950355887413,-0.0452103465795517,-0.45988914370536804,-0.09456606954336166,-0.016327232122421265,-0.07740197330713272,-0.09893927723169327,-0.08940766751766205,-0.20495347678661346,-0.15947355329990387,1.7664271593093872,1.5130304098129272,1.5208699703216553,1.4913960695266724,-0.1659822016954422,-0.12252364307641983,-0.31654366850852966,-0.44266289472579956,-0.316298246383667,-0.2593476176261902,-0.58413165807724,-0.5468871593475342,-0.5313772559165955,-0.3301161825656891,0.10571199655532837,0.14249026775360107,0.1104402095079422,0.1920211911201477,0.15215745568275452,-0.03305657580494881,0.028570381924510002,0.12054231017827988,0.1096276044845581,0.010556426830589771,-0.1646403968334198,0.13679981231689453,-0.06297031044960022,0.1389874815940857,0.21308842301368713,0.17241008579730988,0.13298526406288147,0.019560400396585464,0.04362212121486664,0.24196434020996094,-0.4991442859172821,-0.06724059581756592,0.03257220238447189,-0.06393066048622131,0.07194076478481293,0.031022068113088608,0.11679993569850922,0.2244727909564972,0.17880737781524658,0.15253356099128723,0.2226870357990265,0.009821525774896145,-0.07729595899581909,-0.5455417633056641,-0.6377934813499451,-0.39225706458091736,-0.5251859426498413,-0.4539211690425873,-0.3717644214630127,-0.424418568611145,-0.6437146067619324,-0.3098050653934479,-0.6264007687568665,-0.5219539403915405,-0.7023923993110657,-0.5011354088783264,-0.26192495226860046,-0.2696737051010132,-0.2976095676422119,-0.3013896644115448,-1.2492656707763672,-1.1428546905517578,-1.2998930215835571,-1.4258219003677368,-1.5129185914993286,-1.4878087043762207,-0.011005072854459286,0.028665026649832726,0.1227128729224205,0.12371816486120224,-0.21758988499641418,0.24803070724010468,0.023550821468234062,0.03872660920023918,-0.20342089235782623,-0.16651083528995514,-0.22084161639213562,-0.037194982171058655,0.13276806473731995,0.15209807455539703,0.07378914952278137,0.041424304246902466,0.13410870730876923,0.12987816333770752,0.052051741629838943,-0.17402763664722443,-0.11447171866893768,0.1288978010416031,0.0014337628381326795,0.08231860399246216,-0.06581728905439377,0.27629369497299194,0.07007118314504623,-0.052068497985601425,0.21494466066360474,0.07105004042387009,-0.03556433692574501,0.2824653387069702,0.17971664667129517,-0.025566713884472847,-0.0863424688577652,-0.04826366528868675,0.1472211629152298,0.20180323719978333,0.06349886953830719,0.26117396354675293,-0.01816651038825512,0.6109656095504761,0.7612749338150024,0.9678671360015869,0.7199304699897766,0.6663759350776672,0.8975017070770264,0.8840373754501343,0.9034890532493591,-0.05538959056138992,0.030685342848300934,-0.18628835678100586,-0.03889034315943718,-0.20760279893875122,-0.10386914014816284,0.010429278016090393,-0.06940238177776337,-0.2504347860813141],[-0.31551849842071533,-0.4966495931148529,-0.022990861907601357,0.2208721935749054,0.05058608576655388,0.045489076524972916,-0.46973875164985657,-0.14728400111198425,-0.18311719596385956,0.2745971083641052,0.03653785586357117,0.3989622890949249,0.47802427411079407,-0.6578347682952881,0.03382972627878189,0.02112497203052044,0.4845060706138611,-0.8177482485771179,0.1939181387424469,0.17439649999141693,-0.5041044354438782,-0.43677812814712524,-0.25923892855644226,-0.3168641924858093,-0.45724862813949585,-0.4422674775123596,-0.27730029821395874,-0.45472556352615356,-0.3019331097602844,0.23840640485286713,0.1645422726869583,0.20818452537059784,0.08145935088396072,0.07796453684568405,0.15882137417793274,0.14498190581798553,0.000835147628095001,0.11043968051671982,0.030842971056699753,-0.03431651368737221,0.09252242743968964,0.05091708153486252,0.2636295258998871,0.6899575591087341,-0.06655536592006683,0.15875999629497528,0.2648620307445526,-0.09413222968578339,-1.665708065032959,-0.3260675370693207,-0.013784040696918964,0.1330338567495346,-0.01621546968817711,-0.06143647059798241,0.14225201308727264,0.24728739261627197,-0.06363072991371155,-0.07670320570468903,-0.08060742914676666,0.2758217751979828,0.03883451968431473,0.04370345547795296,0.08790387213230133,-0.07050997763872147,0.07160118967294693,0.25612887740135193,0.0417887344956398,0.20381011068820953,-0.010719814337790012,0.19976721704006195,0.22668488323688507,-1.191321849822998,-0.09154674410820007,0.19802089035511017,0.07160588353872299,0.1772274523973465,0.09873419255018234,0.1207767128944397,0.19076628983020782,0.14514291286468506,0.058136049658060074,0.04159223288297653,1.2451395988464355,0.08963441848754883,0.1317983865737915,-0.8152437806129456,-0.782659113407135,-0.7225715517997742,-0.8066514134407043,-0.6842048168182373,-0.4767917990684509,-0.7754803895950317,-0.8118278980255127,-0.7118691205978394,-0.38713499903678894,-0.30773481726646423,-0.29636165499687195,-0.3326354920864105,-0.36420127749443054,-0.2329549491405487,-0.14802776277065277,-0.2119532972574234,-0.2124958485364914,0.7287713289260864,0.34086230397224426,-0.05956359952688217,-0.04929167032241821,-0.17292508482933044,-0.0447026863694191,-0.03387577831745148,0.0799744576215744,-1.1019595861434937,-0.04113699495792389,-0.5759095549583435,-0.03967241942882538,-0.1941400021314621,-0.11383229494094849,-0.2027619630098343,-0.12067756056785583,-0.6587778329849243,-0.24078942835330963,-0.28573083877563477,-0.3486994504928589,-0.09940372407436371,0.5290222764015198,-0.32145410776138306,-0.3174235224723816,0.7831549644470215,-0.08233372122049332,-0.3330245018005371,-0.37283265590667725,-0.3572772145271301,-0.17049863934516907,-0.11561810225248337,0.38214659690856934,-0.25604942440986633,-0.014554457738995552,-0.009267307817935944,-0.10850349068641663,-0.5799070000648499,0.06726053357124329,0.3594277501106262,0.3419554531574249,0.2537662386894226,0.3139983117580414,0.19583554565906525,0.29506027698516846,0.11508560180664062,0.35320761799812317,0.2109600454568863,-0.13006901741027832,0.09273194521665573,-0.018732402473688126,0.08427245914936066,0.19571448862552643,0.20533424615859985,0.029426995664834976,0.08716144412755966,0.13251183927059174,0.2223779559135437,-0.11601034551858902,0.08903952687978745,-0.09154395759105682,0.17352581024169922,1.0849882364273071,0.09426039457321167,0.015286040492355824,0.12051273882389069,-0.13429909944534302,0.004484374541789293,0.0396120548248291,0.17097905278205872,0.04487146809697151,-0.1155773475766182,-0.09428785741329193,0.18776659667491913,-0.04930945858359337,0.21478372812271118,0.2698841989040375,1.53189218044281,0.03830606862902641,0.23735913634300232,0.08250483870506287,-1.154097080230713,-0.2188665270805359,-0.004204283002763987,-0.11519169062376022,-0.05956985428929329,-0.036600399762392044,-0.2200929820537567,0.0005822847015224397,-0.09324184060096741,-0.024492284283041954,-0.01445159874856472,0.0010366264032199979,0.09228072315454483,-0.7498428821563721,-0.115731380879879,0.20415988564491272,0.15259750187397003,-0.102068692445755,-0.12244358658790588,0.03347000479698181,0.03762208670377731,-0.08577768504619598,0.1881694495677948,-0.15381407737731934,-0.11851635575294495,-0.11575491726398468,0.0012588846730068326,-0.08322308212518692,0.04624451696872711,0.6752269864082336,0.6869235634803772,0.7124064564704895,0.38006502389907837,-0.2772831916809082,0.7033829092979431,0.6662314534187317,0.6930543780326843,0.39702820777893066,0.5829558968544006,0.7224480509757996,0.6425741314888,0.7250482439994812,0.7182145118713379,0.5400492548942566,0.4875025153160095,1.6056993007659912,0.23882068693637848,0.04207932949066162,0.254052996635437,0.10060056298971176,0.21278978884220123,0.2524142861366272,0.16654734313488007,0.40413302183151245,-0.3468032479286194,-0.5817477107048035,-0.024370575323700905,-0.3632194995880127,-0.10815306007862091,-0.21097640693187714,0.07636673748493195,1.1328240633010864,0.9528482556343079,1.1730800867080688,0.16755123436450958,1.1299225091934204,0.3853079378604889,0.2127213031053543,0.131669282913208,-0.015889972448349,-0.03846446052193642,-0.9425483345985413,0.0059036980383098125,-0.21645596623420715,-0.039427630603313446,0.07655522227287292,0.09602554142475128,-0.07223259657621384,-0.07966456562280655,-0.05430816859006882,-0.017872868105769157,0.0895988792181015,0.057702355086803436,0.047056395560503006,-0.1593007743358612,0.07297782599925995,0.2089281529188156,-1.006700873374939,-1.0056744813919067,-0.7553285360336304,-0.7684836387634277,-0.6771906018257141,-0.7431814074516296,-0.7625663876533508,-0.6010050177574158,-0.6994278430938721,-0.7818694114685059,-0.4575885534286499,-0.5335006713867188,-0.5672158598899841,-0.7615169882774353,-0.7726306915283203,-0.7456799149513245,-0.6975856423377991,-0.41057029366493225,-0.6937633752822876,0.3437597155570984,0.11473166942596436,0.3195958137512207,0.32043957710266113,0.1627967208623886,0.34602540731430054,0.16145150363445282,0.26651084423065186,0.18868662416934967,0.19687508046627045,0.5060957074165344,0.3764256238937378,0.29439759254455566,0.2050742357969284,0.3604913353919983,0.2728462815284729,0.07181984931230545,0.35211801528930664,0.013023619540035725,0.0253756083548069,0.184626966714859,0.04483678936958313,0.23844514787197113,0.5054908990859985,0.04738110676407814,0.13601230084896088,0.14401191473007202,-0.032142315059900284,-0.05577700212597847,0.29130828380584717,0.019418155774474144,0.06318425387144089,0.08670493215322495,-0.051082514226436615,-0.2526753842830658,-0.2714824378490448,-0.2217043787240982,-0.056793347001075745,-0.1590481400489807,-0.19033125042915344,0.22176098823547363,-0.24009881913661957,0.4963230490684509,0.23818115890026093,0.38480451703071594,0.22322925925254822,0.44619688391685486,0.22430197894573212,-0.11525751650333405,0.27030906081199646,0.44260039925575256,0.23698924481868744,0.5029522180557251,0.3246585428714752,0.5641106963157654,0.28772303462028503,0.4786512553691864,0.22238898277282715,0.3453700840473175,0.4844556748867035,0.3321639597415924,0.506287693977356,0.35713431239128113,0.2640770673751831,0.40397146344184875,0.4270501434803009,0.5076298117637634,0.4389651119709015,-0.5408445596694946,-0.6375238299369812,-0.4806492030620575,-0.5138949155807495,-0.5720627903938293,-0.41155338287353516,-0.6277650594711304,-0.5789313912391663,-0.5867041945457458,-0.44376346468925476,-0.49233248829841614,-0.6009321212768555,-0.5235353112220764,-0.5460883378982544,-0.4162248969078064,-0.4162699282169342,-0.1040443554520607,-0.053482864052057266,0.01589723862707615,-0.14208869636058807,-0.02674710378050804,0.08800878375768661,0.06675057858228683,-0.0735507532954216,0.523451566696167,0.7467455863952637,0.8103272318840027,0.7649745941162109,0.6555370688438416,0.5919528603553772,0.517726719379425,0.747704267501831,0.6005226969718933],[1.093055009841919,0.4497023820877075,-0.5402751564979553,-0.705202043056488,-0.7347293496131897,-0.5000905394554138,-0.6532922983169556,-0.6311229467391968,0.3192062973976135,-0.33306393027305603,-0.3332863748073578,-0.10275944322347641,-1.3960120677947998,-0.774039626121521,-0.5715711712837219,-0.3701169192790985,-0.011133064515888691,0.3272583782672882,-0.4842476546764374,-0.4211435317993164,0.8454921245574951,0.7326451539993286,-0.4005849361419678,0.680490255355835,0.6180825233459473,0.6605674028396606,1.2676129341125488,0.8503046035766602,0.5989488363265991,-0.9346843957901001,-0.8708820343017578,-0.7278385162353516,-0.9782727956771851,0.36980149149894714,0.07909262180328369,-0.06724214553833008,0.1451312005519867,0.7820172309875488,-0.011230153031647205,-0.024560121819376945,-0.07424457371234894,0.18125931918621063,0.20495067536830902,1.021214485168457,-0.13518963754177094,0.13456866145133972,0.20955000817775726,0.2128371149301529,1.4571456909179688,0.7016076445579529,0.046859391033649445,0.10615760087966919,-0.008221515454351902,0.2863546311855316,0.1071358323097229,-0.11153721809387207,-0.10625360906124115,-0.14560295641422272,0.11887340247631073,0.541907012462616,0.22699157893657684,0.04364140331745148,0.012629794888198376,0.2868528962135315,-0.03770127147436142,0.04686252400279045,0.24892394244670868,-0.03851036727428436,0.06709448993206024,0.12611955404281616,0.21364541351795197,0.18146269023418427,0.009623917751014233,0.22909443080425262,0.06517452001571655,0.16523854434490204,-0.38462337851524353,0.30542826652526855,0.07626539468765259,0.01004666369408369,0.12531623244285583,-0.020346323028206825,-0.12593290209770203,0.2427854984998703,0.7669637203216553,0.3058367073535919,0.3345700800418854,0.33274421095848083,0.36392900347709656,0.6268681883811951,1.1505136489868164,0.5773641467094421,0.5952231287956238,0.5154107809066772,0.5222769975662231,0.5971751809120178,0.296943724155426,0.31445562839508057,0.8627017140388489,0.8285487294197083,0.8324937224388123,0.7801840305328369,-0.07132387161254883,-0.2620958685874939,0.5298409461975098,-0.23478963971138,-0.2624943256378174,-0.193238765001297,-0.2624637484550476,-0.08986835181713104,1.8527315855026245,1.609384536743164,-0.0007814493728801608,0.7950165867805481,0.022742416709661484,-0.06581805646419525,-0.31547409296035767,-0.040732886642217636,-0.14525069296360016,-0.010656378231942654,-0.409316748380661,-0.3534410893917084,-0.1370646357536316,-0.37145718932151794,-0.2950248718261719,-0.3070054352283478,-0.40241244435310364,5.069633960723877,-0.3417821228504181,-0.3001745641231537,-0.3744979798793793,-0.37846776843070984,-0.08244997262954712,0.2666197419166565,0.1319158673286438,0.15515002608299255,-0.2672901451587677,-0.39641669392585754,-0.1614237278699875,0.02794080413877964,0.5750187635421753,0.5170353651046753,0.751659095287323,0.4552364647388458,0.568195104598999,1.1110166311264038,0.9825915694236755,0.44654178619384766,0.7486332058906555,0.5976336598396301,0.16342662274837494,0.48081499338150024,0.5059486627578735,0.26977771520614624,0.2256816178560257,0.4945327043533325,0.39429527521133423,0.4424980878829956,0.1569373905658722,0.34538519382476807,0.2596684694290161,0.24191325902938843,0.1516401618719101,0.39084577560424805,0.4158903658390045,-0.5659199953079224,1.1922959089279175,0.28920984268188477,0.15334682166576385,0.5311824679374695,0.2776627540588379,0.276980459690094,0.5011581778526306,0.2367209941148758,0.20067836344242096,0.5307755470275879,0.4142032265663147,0.3362751603126526,-3.332178831100464,-4.4200334548950195,-0.13583910465240479,-0.2455107718706131,-0.20763720571994781,-0.14231985807418823,1.2715576887130737,1.5861045122146606,1.5151110887527466,1.4052256345748901,1.2091892957687378,1.239303469657898,1.5184541940689087,0.3072938024997711,0.33679258823394775,0.3790144622325897,0.5064927935600281,0.3219466209411621,0.49698472023010254,1.3453415632247925,0.4891369938850403,0.35762733221054077,0.33213186264038086,0.5503385663032532,0.30589237809181213,0.38073036074638367,0.2657870650291443,0.42020711302757263,0.2642565667629242,0.5287728309631348,0.5154601335525513,0.41853538155555725,-0.6778421401977539,-0.5660659670829773,0.2111988365650177,0.13051170110702515,0.03966053947806358,0.030927542597055435,-0.5297020077705383,1.0908398628234863,0.07966188341379166,0.2348475158214569,0.34629786014556885,-0.022778064012527466,0.3413000702857971,0.3540439009666443,0.14317375421524048,0.7556445002555847,-0.01577465422451496,0.06576419621706009,0.909349799156189,0.6627712845802307,0.5883262753486633,0.6699315905570984,0.6183673143386841,0.8654124736785889,0.8026964664459229,0.8244339227676392,0.5915930271148682,-0.9601283669471741,-0.919783890247345,-0.5753253698348999,-0.9565129280090332,2.1535165309906006,1.9531174898147583,1.9558162689208984,1.0201146602630615,0.8554877042770386,1.1010936498641968,0.3117329478263855,1.220327377319336,0.24213187396526337,0.30908650159835815,-0.24608394503593445,-0.13480305671691895,-0.05168505758047104,-0.5036751627922058,-0.16380572319030762,-0.12738767266273499,0.04174703359603882,-0.1948392391204834,-0.08549705147743225,-0.12352624535560608,-0.09006986767053604,-0.025280745700001717,-0.046665824949741364,0.26807621121406555,0.04225129261612892,0.3172474503517151,0.12375780940055847,0.33002251386642456,0.4302412271499634,-0.4992304742336273,-0.43055254220962524,-0.35886627435684204,-0.33283764123916626,-0.46432143449783325,-0.6352922916412354,-0.033629726618528366,0.31458449363708496,0.2573240101337433,0.2059740424156189,0.11224974691867828,-0.03817096725106239,0.17694181203842163,0.02603515423834324,0.2870714068412781,0.28392860293388367,0.012991257011890411,0.3103090524673462,0.15058168768882751,0.6481411457061768,0.5084452033042908,0.32403185963630676,0.3321472108364105,0.5501483082771301,0.6156737208366394,0.2605496346950531,0.7941197752952576,0.47383230924606323,0.5412695407867432,0.8214563727378845,0.30939599871635437,0.6490777730941772,0.516994833946228,0.4583987593650818,0.49821579456329346,0.6020273566246033,0.6017689108848572,0.38521724939346313,0.6538012027740479,0.4682137370109558,0.4509045481681824,0.15038612484931946,0.7319177389144897,0.11636346578598022,0.33033818006515503,0.4541982412338257,0.11497277021408081,0.39172035455703735,0.13747122883796692,0.3736876845359802,0.1204567551612854,0.13240942358970642,2.186042070388794,2.322216272354126,2.276888370513916,2.2631020545959473,0.5019674897193909,0.5513882637023926,0.41130638122558594,0.7628688812255859,0.32578200101852417,0.5569400787353516,0.07457780838012695,0.08705127984285355,0.2851680517196655,0.3815089464187622,0.12139985710382462,0.41300180554389954,0.15604747831821442,0.0936475470662117,0.35133039951324463,0.19043783843517303,0.2857075333595276,0.3706197738647461,0.42294108867645264,0.1546083241701126,0.37769246101379395,0.3912329077720642,0.04974314197897911,0.1731145679950714,0.11844541877508163,0.4239639639854431,0.1524033397436142,0.3140512704849243,0.21653680503368378,0.1975656896829605,0.1532049924135208,0.17470718920230865,-0.1045692190527916,0.09162300080060959,0.24914886057376862,0.2609137296676636,0.05423849821090698,-0.003881258424371481,0.13422855734825134,0.16650117933750153,0.10640660673379898,0.054790645837783813,0.08665072172880173,0.11788304895162582,0.15460166335105896,0.1881341189146042,0.19574309885501862,-0.7015775442123413,-0.5894926190376282,-0.5915029048919678,-0.40035104751586914,-0.5698814392089844,-0.6761479377746582,-0.4111424684524536,-0.3792228698730469,-0.06858937442302704,-0.012984227389097214,0.16278602182865143,-0.205400288105011,-0.14875313639640808,-0.11644852161407471,-0.14450526237487793,0.015748601406812668,-0.021679827943444252]],"biases":[-0.8303210735321045,-0.5899834036827087,-4.694803237915039]},{"weights":[[7.019114017486572,-7.1393890380859375,-35.57804489135742],[-10.252862930297852,-36.295536041259766,12.2559175491333],[-23.7462215423584,-2.5812549591064453,-33.24930953979492],[-2.2141096591949463,-32.30553436279297,-11.819267272949219],[11.737020492553711,1.9482980966567993,-1.2874820232391357],[1.4457240104675293,-24.127944946289062,7.750280380249023],[-29.50224494934082,-9.570708274841309,-9.548354148864746],[-34.77584457397461,-22.569442749023438,4.481329441070557],[26.839691162109375,-19.4111328125,0.14793480932712555],[-0.2936389148235321,-14.78199291229248,-6.146025657653809],[-11.17713737487793,-5.772032737731934,23.270793914794922],[13.13438606262207,2.521029472351074,19.513315200805664],[5.315281391143799,3.094115734100342,-23.279159545898438],[-30.233766555786133,-2.824923515319824,12.35407829284668],[15.16772174835205,-5.058376312255859,8.178284645080566],[3.1927361488342285,-8.249150276184082,27.531145095825195],[-1.2470405101776123,24.094139099121094,-4.5553460121154785],[-1.9323909282684326,-2.401982545852661,-11.857413291931152],[9.09009838104248,22.176738739013672,-10.397148132324219],[-5.965116024017334,-15.615696907043457,-23.85687828063965],[-5.625789642333984,-5.440925121307373,16.406705856323242],[18.369861602783203,14.037906646728516,0.4391595721244812],[-2.5774173736572266,2.0944340229034424,-12.312764167785645],[-0.3636472523212433,20.28437614440918,-32.51511764526367],[-22.32246208190918,16.318317413330078,-32.622493743896484],[3.2034103870391846,-3.911317825317383,-3.7994351387023926],[-2.7400882244110107,2.330110549926758,-12.668673515319824],[26.113971710205078,4.39086389541626,-19.044437408447266],[-25.32853126525879,23.093875885009766,-5.994950771331787],[-7.039496898651123,-26.750154495239258,-3.509155750274658],[7.561701774597168,-39.1619758605957,-7.619243144989014],[-0.02418290451169014,15.889606475830078,16.308624267578125],[-38.560508728027344,7.467431545257568,4.119587421417236],[-11.530731201171875,5.65631628036499,23.855342864990234],[5.246398448944092,3.1890316009521484,-22.489139556884766],[-34.382389068603516,3.9881439208984375,-7.698410511016846],[1.5887420177459717,9.300925254821777,1.1614290475845337],[6.402830600738525,-25.36020851135254,2.110952615737915],[25.816682815551758,-6.331185817718506,-9.753883361816406],[-7.721485137939453,24.216047286987305,4.366430759429932],[5.311371803283691,3.2222046852111816,-22.877992630004883]],"biases":[-3.1039533615112305,-5.938103199005127,4.3881754875183105,-0.9407599568367004,-14.030989646911621,-7.607935905456543,4.553297519683838,0.6119162440299988,-24.967933654785156,0.5236454010009766,-24.309274673461914,-32.81248092651367,-7.312314987182617,-8.89090633392334,-20.813127517700195,-27.840564727783203,-22.38976287841797,-0.2276049256324768,-26.707176208496094,4.382368564605713,-13.774799346923828,-31.56621551513672,-2.377716541290283,-16.85540771484375,-7.594386100769043,-3.4194393157958984,-2.4393832683563232,-26.03122329711914,-16.92340850830078,2.8642404079437256,-3.859567880630493,-30.925016403198242,-7.990457534790039,-25.57386589050293,-7.283131122589111,-0.6596331596374512,-12.570733070373535,-7.0212602615356445,-22.450199127197266,-25.49775505065918,-7.319309234619141]}],"inputLookup":null,"inputLookupLength":0,"outputLookup":null,"outputLookupLength":0,"options":{"inputSize":0,"outputSize":0,"binaryThresh":0.5,"hiddenLayers":[3],"activation":"sigmoid"},"trainOpts":{"activation":"sigmoid","iterations":20000,"errorThresh":0.005,"log":false,"logPeriod":10,"leakyReluAlpha":0.01,"learningRate":0.3,"momentum":0.1,"callbackPeriod":10,"timeout":"Infinity","beta1":0.9,"beta2":0.999,"epsilon":1e-8}}