{"type":"NeuralNetwork","sizes":[14,3,3],"layers":[{"weights":[],"biases":[]},{"weights":[[-2.089866876602173,-0.05418528988957405,1.1778258085250854,-1.4579037427902222,-2.3327207565307617,-3.06685209274292,-0.1514262706041336,-1.9985944032669067,0.1991041600704193,1.3306686878204346,1.9858144521713257,0.11407744139432907,-0.19665168225765228,-0.06633521616458893],[-2.275456428527832,-0.10896217823028564,3.85646390914917,-1.427575945854187,-2.0447325706481934,0.1318323314189911,-0.19963091611862183,-6.713519096374512,-0.11643036454916,3.8739242553710938,7.048628330230713,0.045583222061395645,-0.17899802327156067,-0.09173928201198578],[5.1318159103393555,-0.03185359388589859,-1.4326837062835693,1.871380090713501,5.009562969207764,6.654889106750488,0.027112597599625587,5.083893299102783,-0.10927089303731918,-3.192110061645508,-4.492315769195557,0.045562874525785446,-0.04272984340786934,0.02259199507534504]],"biases":[-1.7307370901107788,-3.5826523303985596,-3.677644968032837]},{"weights":[[-0.8300387263298035,-6.49075984954834,7.394118309020996],[0.9971755743026733,6.473922252655029,-7.351884365081787],[-2.142660617828369,-1.5382206439971924,-2.4132683277130127]],"biases":[-1.020450472831726,0.9947608709335327,-4.701488494873047]}],"inputLookup":null,"inputLookupLength":0,"outputLookup":{"1":0,"2":1,"3":2},"outputLookupLength":3,"options":{"inputSize":0,"outputSize":0,"binaryThresh":0.5,"hiddenLayers":[3],"activation":"sigmoid"},"trainOpts":{"activation":"sigmoid","iterations":20000,"errorThresh":0.005,"log":false,"logPeriod":10,"leakyReluAlpha":0.01,"learningRate":0.3,"momentum":0.1,"callbackPeriod":10,"timeout":"Infinity","beta1":0.9,"beta2":0.999,"epsilon":1e-8}}