{"type":"NeuralNetwork","sizes":[20,3,3],"layers":[{"weights":[],"biases":[]},{"weights":[[0.7532016038894653,0.14708459377288818,-0.6714383363723755,0.8259418606758118,0.9381476640701294,0.9899027943611145,0.8736945986747742,1.0646686553955078,-0.154799222946167,-0.9516698122024536,-0.8747655153274536,-0.838241696357727,-0.9211585521697998,-0.33762016892433167,-0.22338993847370148,-0.2551971673965454,-0.16485708951950073,-0.4135001301765442,-0.18729613721370697,-0.3048711121082306],[-1.015258550643921,0.19133424758911133,0.7880644202232361,-0.9575133323669434,-1.2415964603424072,-1.1488380432128906,-1.206985354423523,-0.9508336782455444,-0.1904303878545761,1.268579125404358,1.1013360023498535,1.2870888710021973,1.0241799354553223,0.26829224824905396,0.39264827966690063,0.37488436698913574,0.1919192224740982,0.4188838601112366,0.4679188132286072,0.2404256910085678],[1.1477655172348022,-0.04713749885559082,-1.1749178171157837,1.2724425792694092,1.5717536211013794,1.4890193939208984,1.6392390727996826,1.242620587348938,0.14577357470989227,-1.4220070838928223,-1.5457329750061035,-1.3912606239318848,-1.3141944408416748,-0.5088368654251099,-0.4791114032268524,-0.3351558744907379,-0.3977234959602356,-0.32933640480041504,-0.17510244250297546,-0.4450269937515259]],"biases":[-0.20255164802074432,0.17229807376861572,-0.07870568335056305]},{"weights":[[2.051868438720703,-3.04960560798645,3.4832394123077393],[-2.0313382148742676,3.058910369873047,-3.474705696105957],[-0.8460900187492371,-1.1424285173416138,-1.030216097831726]],"biases":[-1.0164889097213745,0.9978076219558716,-2.1886284351348877]}],"inputLookup":null,"inputLookupLength":0,"outputLookup":{"1":0,"2":1,"3":2},"outputLookupLength":3,"options":{"inputSize":0,"outputSize":0,"binaryThresh":0.5,"hiddenLayers":[3],"activation":"sigmoid"},"trainOpts":{"activation":"sigmoid","iterations":20000,"errorThresh":0.005,"log":false,"logPeriod":10,"leakyReluAlpha":0.01,"learningRate":0.3,"momentum":0.1,"callbackPeriod":10,"timeout":"Infinity","beta1":0.9,"beta2":0.999,"epsilon":1e-8}}